{"architecture": {"module": "keras", "class_name": "Sequential", "config": {"name": "sequential", "trainable": true, "dtype": {"module": "keras", "class_name": "DTypePolicy", "config": {"name": "float32"}, "registered_name": null}, "layers": [{"module": "keras.layers", "class_name": "InputLayer", "config": {"batch_shape": [null, 8], "dtype": "float32", "sparse": false, "name": "dense_input"}, "registered_name": null}, {"module": "keras.layers", "class_name": "Dense", "config": {"name": "dense", "trainable": true, "dtype": {"module": "keras", "class_name": "DTypePolicy", "config": {"name": "float32"}, "registered_name": null}, "units": 64, "activation": "relu", "use_bias": true, "kernel_initializer": {"module": "keras.initializers", "class_name": "GlorotUniform", "config": {"seed": null}, "registered_name": null}, "bias_initializer": {"module": "keras.initializers", "class_name": "Zeros", "config": {}, "registered_name": null}, "kernel_regularizer": {"module": "keras.regularizers", "class_name": "L2", "config": {"l2": 0.0010000000474974513}, "registered_name": null}, "bias_regularizer": null, "kernel_constraint": null, "bias_constraint": null}, "registered_name": null, "build_config": {"input_shape": [null, 8]}}, {"module": "keras.layers", "class_name": "Dense", "config": {"name": "dense_1", "trainable": true, "dtype": {"module": "keras", "class_name": "DTypePolicy", "config": {"name": "float32"}, "registered_name": null}, "units": 32, "activation": "relu", "use_bias": true, "kernel_initializer": {"module": "keras.initializers", "class_name": "GlorotUniform", "config": {"seed": null}, "registered_name": null}, "bias_initializer": {"module": "keras.initializers", "class_name": "Zeros", "config": {}, "registered_name": null}, "kernel_regularizer": {"module": "keras.regularizers", "class_name": "L2", "config": {"l2": 0.0010000000474974513}, "registered_name": null}, "bias_regularizer": null, "kernel_constraint": null, "bias_constraint": null}, "registered_name": null, "build_config": {"input_shape": [null, 64]}}, {"module": "keras.layers", "class_name": "Dense", "config": {"name": "dense_2", "trainable": true, "dtype": {"module": "keras", "class_name": "DTypePolicy", "config": {"name": "float32"}, "registered_name": null}, "units": 16, "activation": "relu", "use_bias": true, "kernel_initializer": {"module": "keras.initializers", "class_name": "GlorotUniform", "config": {"seed": null}, "registered_name": null}, "bias_initializer": {"module": "keras.initializers", "class_name": "Zeros", "config": {}, "registered_name": null}, "kernel_regularizer": {"module": "keras.regularizers", "class_name": "L2", "config": {"l2": 0.0010000000474974513}, "registered_name": null}, "bias_regularizer": null, "kernel_constraint": null, "bias_constraint": null}, "registered_name": null, "build_config": {"input_shape": [null, 32]}}, {"module": "keras.layers", "class_name": "Dense", "config": {"name": "dense_3", "trainable": true, "dtype": {"module": "keras", "class_name": "DTypePolicy", "config": {"name": "float32"}, "registered_name": null}, "units": 1, "activation": "sigmoid", "use_bias": true, "kernel_initializer": {"module": "keras.initializers", "class_name": "GlorotUniform", "config": {"seed": null}, "registered_name": null}, "bias_initializer": {"module": "keras.initializers", "class_name": "Zeros", "config": {}, "registered_name": null}, "kernel_regularizer": {"module": "keras.regularizers", "class_name": "L2", "config": {"l2": 0.0010000000474974513}, "registered_name": null}, "bias_regularizer": null, "kernel_constraint": null, "bias_constraint": null}, "registered_name": null, "build_config": {"input_shape": [null, 16]}}], "build_input_shape": [null, 8]}, "registered_name": null, "build_config": {"input_shape": [null, 8]}, "compile_config": {"optimizer": {"module": "keras.optimizers", "class_name": "RMSprop", "config": {"name": "rmsprop", "learning_rate": 0.0010000000474974513, "weight_decay": null, "clipnorm": null, "global_clipnorm": null, "clipvalue": null, "use_ema": false, "ema_momentum": 0.99, "ema_overwrite_frequency": null, "loss_scale_factor": null, "gradient_accumulation_steps": null, "rho": 0.9, "momentum": 0.0, "epsilon": 1e-07, "centered": false}, "registered_name": null}, "loss": {"module": "builtins", "class_name": "function", "config": "binary_crossentropy", "registered_name": "function"}, "loss_weights": null, "metrics": [[{"module": "keras.metrics", "class_name": "MeanMetricWrapper", "config": {"name": "accuracy", "dtype": "float32", "fn": "binary_accuracy"}, "registered_name": null}]], "weighted_metrics": null, "run_eagerly": false, "steps_per_execution": 1, "jit_compile": true}}, "weights": [[[-0.2160249501466751, 0.19844327867031097, -0.17995551228523254, 0.27091947197914124, -0.1767631620168686, -0.24229413270950317, -0.23811379075050354, -0.18427026271820068, 0.017646772786974907, -0.1825340837240219, -0.23687097430229187, 0.04129256680607796, 0.24157604575157166, 0.29520490765571594, 0.07497692108154297, -0.07856705784797668, 0.24956552684307098, 0.20658423006534576, -0.15841591358184814, -0.15238048136234283, 0.15425440669059753, -0.2316531240940094, -0.14936761558055878, 0.1665894240140915, -0.08808394521474838, -0.14980335533618927, 0.009413441643118858, 0.25504353642463684, 0.14526686072349548, 0.09884773194789886, -0.32700416445732117, -0.01565363071858883, 0.09340854734182358, -0.03766632080078125, -0.20419175922870636, 0.1403757780790329, 0.1429717242717743, 0.06712523847818375, 0.10389275848865509, -0.1142122820019722, 0.09588015079498291, -0.23879678547382355, 0.04623056575655937, -0.18724605441093445, -0.18984182178974152, 0.0365348644554615, 0.2229517549276352, 0.26306426525115967, -0.06037944182753563, -0.2092639058828354, 0.24224139750003815, -0.23389121890068054, -0.16308684647083282, -0.034547943621873856, -0.291493684053421, -0.11464571952819824, 0.102630615234375, 0.06299872696399689, -0.007920373231172562, -0.31573933362960815, 0.1699548214673996, 0.2229537069797516, -0.14860428869724274, 0.14945712685585022], [0.08962427824735641, -0.33279862999916077, -0.14653266966342926, -0.14433465898036957, 0.29866355657577515, -0.20846927165985107, 0.25067853927612305, 0.15564946830272675, 0.08844976127147675, 0.19931022822856903, -0.07087444514036179, 0.005912599619477987, 0.037359777837991714, 0.21332606673240662, 0.08741272985935211, -0.1913691610097885, 0.15699313580989838, -0.27073219418525696, 0.1905180960893631, -0.13552504777908325, 0.04366962984204292, -0.2427101731300354, 0.07544778287410736, 0.1431376039981842, 0.2624661326408386, 0.1753602772951126, 0.02386830933392048, 0.026608198881149292, 0.01989934779703617, 0.13152597844600677, 0.11194456368684769, -0.18617123365402222, -0.039910938590765, -0.2813758850097656, 0.23757654428482056, 0.1599656492471695, -0.2935192883014679, -0.10923570394515991, 0.08597862720489502, -0.2539859116077423, -0.2180308997631073, -0.002135724760591984, -0.2694380581378937, 0.2626837193965912, -0.22865816950798035, -0.11695794016122818, 0.2983666658401489, 0.21748334169387817, 0.12878984212875366, -0.03250514715909958, 0.305294930934906, -0.012066598050296307, -0.23295703530311584, -0.21236437559127808, 0.20738008618354797, -0.0657254233956337, 0.26859721541404724, -0.20395731925964355, 0.0038071712478995323, -0.25554701685905457, 0.07115117460489273, 0.1524338573217392, -0.18122580647468567, 0.14403173327445984], [0.2610493302345276, -0.16494891047477722, -0.14016643166542053, -0.06272396445274353, 0.01817825622856617, 0.18802793323993683, -0.1439540535211563, 0.12860217690467834, 0.16555972397327423, -0.21812038123607635, -0.04885368421673775, 0.07427474856376648, 0.02359701320528984, -0.05085394158959389, 0.01516718976199627, -0.2315889596939087, -0.1368229240179062, -0.23434054851531982, 0.08488280326128006, -0.12068625539541245, -0.20841331779956818, 0.17917756736278534, 0.29275405406951904, 0.19834670424461365, -0.10161716490983963, 0.11219432950019836, -0.21724051237106323, -0.09380492568016052, -0.25763562321662903, 0.05698327347636223, 0.1500691920518875, -0.11038202047348022, 0.2602483034133911, -0.002213635016232729, 0.1621609926223755, 0.20017307996749878, 0.2366967499256134, -0.033683136105537415, -0.13192875683307648, -0.22992417216300964, 0.18317635357379913, 0.21493278443813324, -0.25636717677116394, -0.018706630915403366, 0.10270553827285767, 0.25486984848976135, -0.2820116877555847, 0.2552834451198578, 0.04148781672120094, 0.10615842044353485, 0.011104983277618885, 0.006884116679430008, 0.15495868027210236, 0.2514883577823639, -0.14727337658405304, -0.06854948401451111, -0.07891548424959183, -0.10195914655923843, -0.058056287467479706, 0.1479109823703766, 0.013926281593739986, -0.023941729217767715, 0.23479905724525452, -0.07570832967758179], [-0.09031256288290024, 0.05767809599637985, -0.09167475998401642, -0.1812872439622879, -0.2813907861709595, 0.2793940305709839, -0.06612879037857056, 0.03202538192272186, 0.24390055239200592, -0.07820294052362442, 0.24014794826507568, 0.032775577157735825, 0.20489099621772766, 0.2032291442155838, -0.12906590104103088, 0.27489569783210754, 0.01878368854522705, -0.016586700454354286, 0.052855126559734344, -0.14888915419578552, -0.2770700752735138, 0.3143579065799713, 0.14542432129383087, -0.06999873369932175, 0.0333683118224144, 0.20750489830970764, -0.05715489014983177, -0.20887330174446106, 0.14561325311660767, 0.10397424548864365, 0.19592060148715973, 0.22531218826770782, 0.2706221342086792, -0.215287983417511, -0.1975986361503601, -0.15870557725429535, -0.2249174565076828, 0.15567675232887268, 0.19335100054740906, -0.13543248176574707, 0.10446958988904953, 0.13789613544940948, -0.1833963543176651, -0.05802992731332779, -0.0973721593618393, -0.12633904814720154, 0.14633674919605255, -0.02069697342813015, 0.20295093953609467, 0.02067784033715725, -0.13737450540065765, 0.034460462629795074, -0.20605508983135223, 0.15454445779323578, 0.17835041880607605, -0.22979210317134857, -0.25281795859336853, 0.15782764554023743, 0.279446005821228, -0.041437700390815735, 0.17291949689388275, 0.020535549148917198, -0.15768571197986603, 0.23440790176391602], [-0.018453508615493774, -0.11788947135210037, -0.008688950911164284, -0.04281375929713249, -0.25713738799095154, -0.1035940945148468, 0.0501638688147068, -0.04886508733034134, 0.10671095550060272, 0.2446201741695404, 0.1492745578289032, 0.2316417098045349, 0.2094273418188095, 0.19301189482212067, -0.18151545524597168, -0.16779965162277222, -0.22294864058494568, 0.27857181429862976, 0.03356336057186127, 0.18819387257099152, 0.3100314140319824, 0.04033684730529785, 0.26329031586647034, 0.0005989687633700669, -0.1918434202671051, -0.25040656328201294, 0.27171778678894043, -0.15249080955982208, -0.15366661548614502, -0.038414448499679565, -0.23130196332931519, 0.046137236058712006, -0.2799881398677826, -0.24390166997909546, 0.20600852370262146, -0.1194886639714241, -0.10607045888900757, 0.14147406816482544, 0.14992326498031616, -0.21250054240226746, 0.28809818625450134, -0.1648937314748764, -0.00019698907271958888, -0.09170353412628174, 0.07649330794811249, 0.07971121370792389, 0.1649918258190155, 0.21025432646274567, -0.006080597173422575, -0.3040602505207062, 0.13882845640182495, -0.14895839989185333, -0.13949693739414215, -0.25246453285217285, 0.038471292704343796, 0.13922081887722015, 0.09601520746946335, 0.2165970355272293, 0.18188564479351044, -0.1876874417066574, -0.18365471065044403, 0.19017772376537323, 0.16542784869670868, 0.024672145023941994], [0.1324596405029297, 0.1019435003399849, 0.10233858972787857, 0.18468143045902252, -0.16544653475284576, -0.017758337780833244, -0.21026983857154846, -0.03339977189898491, 0.14821834862232208, -0.19865259528160095, 0.1206655353307724, 0.07180661708116531, 0.13259552419185638, -0.1407642364501953, -0.06850168108940125, -0.2640834152698517, 0.25461238622665405, -0.3079528212547302, 0.09159179776906967, -0.23950403928756714, -0.23317743837833405, -0.1896657794713974, 0.040957383811473846, 0.14619937539100647, 0.14318965375423431, -0.15587405860424042, 0.2433730959892273, -0.21261921525001526, -0.022555934265255928, 0.05837169289588928, -0.11124039441347122, -0.06318587809801102, 0.1621166616678238, -0.2153891772031784, 0.22424498200416565, 0.1734270304441452, -0.13168562948703766, -0.07827908545732498, -0.10480288416147232, -0.08629409968852997, 0.22139860689640045, -0.004497655667364597, 0.14053264260292053, 0.24452891945838928, 0.0484137125313282, 0.24514417350292206, -0.017951669171452522, -0.03442835435271263, 0.060245923697948456, -0.3504463732242584, 0.00860661081969738, 0.06735356897115707, -0.21560345590114594, -0.013762027956545353, -0.2939300537109375, -0.16032861173152924, -0.2262292355298996, -0.21363995969295502, -0.05627523735165596, -0.19872644543647766, 0.1112026646733284, 0.1127178817987442, -0.24653753638267517, 0.19259876012802124], [0.12452201545238495, 0.2146735042333603, 0.12625853717327118, 0.1658477783203125, 0.28566446900367737, 0.07486506551504135, 0.2082131952047348, -0.0893164873123169, -0.22998659312725067, 0.07450210303068161, 0.029721511527895927, 0.12314450740814209, 0.2534676492214203, 0.24670705199241638, 0.08402421325445175, -0.27104514837265015, -0.18245738744735718, -0.0734347328543663, 0.14421211183071136, 0.19975876808166504, 0.20971965789794922, -0.23968669772148132, 0.2151709944009781, 0.10967932641506195, 0.03139100596308708, -0.03733598813414574, 0.22589725255966187, 0.18071694672107697, -0.10600381344556808, 0.10852106660604477, -0.15121206641197205, -0.02994249202311039, 0.10160963237285614, 0.08605582267045975, -0.07318003475666046, -0.16872179508209229, 0.11253367364406586, -0.0036722004879266024, 0.2269909679889679, -0.31803303956985474, -0.026169903576374054, 0.08533032983541489, 0.15719164907932281, 0.2648780643939972, -0.08283869922161102, -0.05129405856132507, 0.1789322793483734, -0.225833460688591, 0.26270604133605957, -0.0843852087855339, 0.17965789139270782, -0.1398499608039856, 0.10639306902885437, 0.25746384263038635, -0.07719940692186356, 0.008530455641448498, -0.22695709764957428, -0.19771774113178253, -0.08114509284496307, 0.07151732593774796, 0.20042912662029266, -0.2450580596923828, -0.14354035258293152, 0.156711146235466], [-0.2983221709728241, -0.14267155528068542, 0.12195620685815811, 0.1056646853685379, 0.27177271246910095, -0.15946584939956665, 0.11807732284069061, 0.18563203513622284, 0.19941222667694092, 0.18862180411815643, 0.07025384157896042, 0.09352142363786697, 0.0795007199048996, 0.0271600354462862, -0.07018163055181503, -0.19139380753040314, 0.14720967411994934, 0.259243369102478, 0.14424623548984528, -0.31448617577552795, 0.07372202724218369, -0.2945639193058014, 0.04386134818196297, -0.0857149213552475, 0.01959526166319847, 0.12289184331893921, 0.026035604998469353, -0.11432435363531113, 0.13376741111278534, 0.0645628273487091, -0.21231406927108765, -0.17611326277256012, 0.14988824725151062, 0.27063336968421936, 0.17939907312393188, 0.14431950449943542, -0.2108561247587204, 0.09395108371973038, 0.04462959244847298, 0.05737442523241043, -0.06385159492492676, 0.06818981468677521, -0.2248484492301941, 0.2656819820404053, 0.21260201930999756, -0.26241499185562134, -0.03244435787200928, -0.16073882579803467, 0.15009231865406036, 0.07606925070285797, -0.1747143417596817, -0.3493393361568451, -0.05258931219577789, 0.10735875368118286, -0.24268685281276703, -0.14700184762477875, -0.13507723808288574, 0.08933831006288528, -0.11493583768606186, -0.11762749403715134, 0.2532147765159607, -0.2630026638507843, -0.3410995304584503, 0.020656533539295197]], [0.0331457145512104, 0.05072903633117676, 0.0344863198697567, 0.00830426812171936, 0.020781084895133972, 0.06673236936330795, 0.04006824269890785, -0.05339313670992851, 0.013727906160056591, 0.001456816797144711, 0.005548514425754547, -0.006135578732937574, 0.011985832825303078, -0.02192254550755024, 0.0060479482635855675, 0.05268653854727745, -0.005386325065046549, -0.011178549379110336, 0.022054623812437057, 0.024041298776865005, 0.04269268736243248, 0.02827506884932518, -0.00777421472594142, -0.004415550734847784, 0.02045259065926075, 0.06862813234329224, 0.022500425577163696, 0.06803753226995468, -0.00020732812117785215, 0.009697278030216694, 0.05577941611409187, 0.03793136775493622, 0.051769327372312546, 0.03351293131709099, 0.030114341527223587, -0.03798995167016983, 0.02657134085893631, -0.036697786301374435, -0.005410431884229183, 0.08579478412866592, -0.009776407852768898, -0.05543934553861618, 0.06415782868862152, 0.04626762121915817, 0.03340141102671623, 0.04739599674940109, 0.029347192496061325, -0.03380366042256355, -0.017600562423467636, 0.1064218059182167, -0.018656469881534576, 0.055040035396814346, -0.05528188496828079, 0.04447279870510101, 0.025499524548649788, -0.010584316216409206, 0.040461886674165726, -0.053984276950359344, -0.0029697518330067396, 0.04709135368466377, -0.006262726150453091, 0.004938620142638683, 0.07225438207387924, -0.03404318913817406], [[0.04485292732715607, 0.1359158158302307, 0.004128810949623585, -0.019743910059332848, 0.10128776729106903, -0.11397295445203781, 0.0017853787867352366, -0.04752066358923912, -0.24870581924915314, -0.06425870209932327, 0.034436747431755066, -0.025005070492625237, 0.10663141310214996, -0.012839936651289463, 0.09903102368116379, -0.055574171245098114, 0.13854266703128815, 0.0834909975528717, 0.16762103140354156, 0.23949401080608368, 0.11043037474155426, -0.10557550936937332, -0.07945369184017181, -0.059881988912820816, -0.07053196430206299, 0.009863716550171375, 0.2356545627117157, -0.04099556803703308, -0.08622970432043076, 0.0967613235116005, -0.25124168395996094, -0.09601722657680511], [-0.13117313385009766, -0.12349748611450195, 0.14488159120082855, -0.042912427335977554, -0.019026491791009903, 0.18362565338611603, 0.08239994943141937, 0.004727052990347147, 0.0178257804363966, -0.06245013326406479, 0.09608346968889236, -0.16027675569057465, 0.07269067317247391, 0.10485611110925674, 0.23958246409893036, -0.058289069682359695, 0.11812315136194229, -0.07288461923599243, -0.05862434580922127, 0.18566596508026123, -0.17754775285720825, -0.09995958209037781, -0.00995237659662962, 0.064020074903965, -0.09388918429613113, 0.22453941404819489, -0.09130846709012985, 0.17032518982887268, 0.1223004013299942, 0.048854559659957886, -0.04756409302353859, 0.0994434505701065], [-0.06385403126478195, 0.21783573925495148, -0.06263500452041626, -0.013492092490196228, -0.16712883114814758, -0.1702413260936737, -0.07538777589797974, 0.05562129616737366, -0.18652021884918213, -0.15665286779403687, 0.11128834635019302, 0.09425656497478485, 0.10067276656627655, 0.09605374187231064, -0.12188760191202164, 0.2141539603471756, -0.025252407416701317, -0.17744669318199158, 0.06220603734254837, -0.17158856987953186, 0.07570907473564148, 0.014013916254043579, -0.07375884056091309, -0.12009185552597046, 0.029476068913936615, 0.19131281971931458, 0.23326700925827026, 0.01235033106058836, 0.20684896409511566, 0.1349009871482849, 0.16586671769618988, -0.14492590725421906], [-0.12256359308958054, -0.028709961101412773, -0.11118148267269135, -0.10219908505678177, 0.11681532859802246, 0.13029934465885162, 0.17832188308238983, -0.11765148490667343, -0.09854292869567871, 0.10923883318901062, -0.11357609182596207, 0.16596432030200958, -0.1208002045750618, 0.08800898492336273, 0.1932087242603302, 0.05766286700963974, 0.0008382556261494756, -0.06580337882041931, -0.034808192402124405, -0.03879856690764427, -0.12732702493667603, 0.12197981774806976, -0.08219914138317108, 0.021189536899328232, -0.15632465481758118, -0.1620914787054062, -0.15735559165477753, -0.1591111570596695, 0.006237457040697336, 0.13146960735321045, 0.011459712870419025, 0.17717425525188446], [-0.059213899075984955, -0.06942486763000488, -0.0467352494597435, 0.08949615061283112, -0.0459953173995018, 0.20191816985607147, -0.0746009349822998, -0.011025717481970787, 0.20463469624519348, -0.10289862006902695, 0.10823008418083191, 0.07510321587324142, 0.11263022571802139, 0.09865870326757431, 0.19229869544506073, -0.18713897466659546, 0.03863329440355301, -0.0470297671854496, 0.08757053315639496, -0.0012360726250335574, 0.04123133420944214, -0.05482354387640953, 0.01676228456199169, 0.10124886780977249, 0.058592457324266434, 0.19477422535419464, 0.11026131361722946, -0.1942296028137207, 0.19224987924098969, -0.10772353410720825, -0.1359339952468872, 0.2636010944843292], [-0.1547069102525711, -0.025268351659178734, 0.18530750274658203, 0.2646917700767517, -0.017726469784975052, 0.19842135906219482, 0.14769190549850464, -0.18206696212291718, -0.0872291624546051, 0.07637201249599457, 0.218633234500885, -0.01124480739235878, 0.24541817605495453, -0.12244205921888351, -0.15358524024486542, -0.15817447006702423, -0.08510039001703262, 0.1594085842370987, -0.001201062579639256, 0.1684713065624237, 0.125309556722641, -0.06357160955667496, -0.08085094392299652, -0.026272950693964958, -0.07903699576854706, 0.15053899586200714, 0.07530464231967926, 0.1967344582080841, -0.04694352671504021, 0.012571288272738457, 0.16667300462722778, -0.09666670858860016], [-0.013757328502833843, 0.041404761373996735, -0.015322616323828697, 0.06839402765035629, 0.2024441808462143, 0.25685322284698486, 0.035513848066329956, 0.13118617236614227, 0.10091565549373627, 0.15627378225326538, -0.22241607308387756, 0.08128674328327179, -0.015390260145068169, 0.011805000714957714, -0.1704655885696411, -0.16841909289360046, 0.10935239493846893, -0.10443124920129776, 0.10021078586578369, 0.013611133210361004, 0.24053321778774261, -0.004228636156767607, 0.0060634920373559, -0.09023827314376831, -0.13132750988006592, 0.23337675631046295, 0.0978219285607338, -0.03285357728600502, 0.11009816080331802, -0.03624211624264717, 0.06538072973489761, -0.019910361617803574], [-0.021191753447055817, 0.040033064782619476, -0.053336869925260544, -0.15241311490535736, 0.13218726217746735, -0.06399261206388474, 0.1828184723854065, 0.016522131860256195, 0.225679412484169, 0.12512409687042236, 0.22210896015167236, 0.11783793568611145, -0.09040586650371552, -0.09503825008869171, -0.026495007798075676, 0.10915174335241318, 0.08510599285364151, 0.049649037420749664, 0.11654140800237656, 0.012215194292366505, -0.005260894540697336, 0.04715845733880997, -0.01051342487335205, 0.10786689817905426, -0.0021696120966225863, -0.061593446880578995, 0.051104944199323654, -0.2062525451183319, 0.19447389245033264, -0.07329205423593521, 0.03495871648192406, -0.1630716174840927], [-0.10227072983980179, 0.0700596272945404, 0.09105266630649567, -0.0028837742283940315, 0.05530628561973572, -0.21258658170700073, -0.09569349884986877, 0.12488339841365814, 0.09586331248283386, -0.13057589530944824, 0.12671853601932526, -0.0026983635034412146, 0.0415504090487957, -0.08848780393600464, -0.2520187497138977, -0.08774816989898682, -0.18254216015338898, -0.1439281404018402, -0.0530262365937233, 0.15273380279541016, -0.10974305123090744, -0.15956757962703705, -0.04536430910229683, -0.016675636172294617, 0.038264065980911255, 0.17442800104618073, 0.09351705014705658, 0.1813552975654602, 0.18482407927513123, -0.022717833518981934, 0.037220269441604614, 0.10337984561920166], [0.15597154200077057, -0.05418238788843155, 0.08111570030450821, 0.04625162482261658, 0.047753799706697464, 0.11016124486923218, 0.14573226869106293, 0.1640886515378952, -0.17232725024223328, -0.017072992399334908, 0.2562344968318939, 0.08672751486301422, -0.1672603338956833, 0.13375945389270782, -0.08147414773702621, 0.011808174662292004, -0.16260293126106262, 0.07390590757131577, 0.2134709358215332, -0.006710308138281107, 0.06096547469496727, 0.15290305018424988, 0.13171246647834778, 0.03500598669052124, -0.03350922837853432, 0.03748178482055664, 0.23784564435482025, 0.20402933657169342, -0.08839946240186691, -0.21886089444160461, -0.17287051677703857, 0.1466819792985916], [-0.12053097039461136, -0.17727725207805634, -0.09991148859262466, 0.06399605423212051, -0.10873200744390488, -0.1701887845993042, -0.03421840816736221, 0.07907390594482422, -0.11077810078859329, 0.1804478019475937, 0.02831050008535385, 0.0855126827955246, -0.1049133762717247, 0.10380557179450989, 0.19542884826660156, 0.14822301268577576, 0.10454442352056503, -0.05828463286161423, 0.20983454585075378, 0.1745443046092987, 0.11924824118614197, 0.16628843545913696, -0.006901203189045191, -0.19892634451389313, -0.25135669112205505, 0.08146939426660538, 0.13574375212192535, -0.013583088293671608, 0.11609473824501038, 0.09390705823898315, -0.19544357061386108, 0.1663254201412201], [-0.21075573563575745, 0.17196090519428253, -0.006932664196938276, -0.10510467737913132, -0.05276351422071457, -0.03439188748598099, -0.15681859850883484, -0.05090281739830971, -0.017424918711185455, -0.08956900238990784, -0.12775740027427673, -0.21325838565826416, -0.16290374100208282, 0.05426384136080742, 0.14998012781143188, -0.07049981504678726, -0.0033403723500669003, -0.12268853187561035, 0.13828802108764648, 0.07407322525978088, -0.0843004658818245, 0.12358923256397247, -0.04781436175107956, 0.17193955183029175, 0.0471557155251503, 0.11982255429029465, -0.07606887817382812, 0.09101062268018723, 0.01771763153374195, 0.004020655993372202, 0.16557607054710388, 0.11526644229888916], [0.034490276128053665, 0.09330759942531586, -0.09566005319356918, -0.19680963456630707, 0.1264817863702774, -0.15940459072589874, -0.113212950527668, -0.08117350935935974, 0.042838145047426224, -0.037391893565654755, -0.06165173277258873, -0.17418399453163147, -0.120350681245327, -0.17750035226345062, 0.07985497266054153, 0.001289716106839478, 0.11536180973052979, -0.07277597486972809, -0.019508693367242813, -0.03611156716942787, 0.03543106094002724, -0.12690940499305725, 0.07076830416917801, -0.02925133891403675, -0.130014568567276, 0.2315988689661026, 0.15856917202472687, 0.04037640243768692, 0.19748884439468384, 0.23868675529956818, 0.14029164612293243, 0.014576707035303116], [0.22832316160202026, -0.2019570916891098, 0.009840882383286953, -0.04068784788250923, -0.08356582373380661, 0.10013978183269501, -0.16647520661354065, -0.07024607807397842, 0.19728611409664154, 0.031608495861291885, 0.10489241778850555, 0.08141107857227325, 0.10006812959909439, 0.1765369474887848, 0.19715619087219238, 0.19127649068832397, -0.15933860838413239, 0.06803569942712784, 0.06996147334575653, 0.1536843627691269, -0.1702985316514969, -0.024824777618050575, -0.006244582124054432, 0.2114868015050888, 0.21432220935821533, 0.1674545258283615, -0.08437655121088028, -0.2282533347606659, -0.10134920477867126, 0.25631335377693176, 0.22112490236759186, 0.1779661923646927], [-0.05353406071662903, -0.16558125615119934, 0.07459869980812073, -0.053603656589984894, 0.12550945580005646, -0.010514949448406696, 0.056496672332286835, 0.0815582349896431, 0.06852911412715912, -0.054902371019124985, -0.11454302072525024, 0.08754520863294601, -0.002009791787713766, -0.07321751862764359, -0.022375721484422684, -0.04943959787487984, -0.006614735350012779, -0.09628637880086899, 0.02796144038438797, -0.1701217144727707, -0.05347625911235809, 0.16746684908866882, -0.08439888060092926, -0.05939106270670891, -0.09667444974184036, 0.2555886209011078, 0.053725164383649826, 0.06923382729291916, 0.01853247918188572, -0.11239562928676605, 0.13792335987091064, -0.025325695052742958], [-0.007719910237938166, -0.08658989518880844, -0.008485573343932629, 0.26292088627815247, -0.049128953367471695, 0.2147449404001236, -0.11534923315048218, -0.007284610997885466, -0.19098569452762604, 0.01276711467653513, 0.02667052485048771, 0.04035244882106781, -0.08112616837024689, 0.12104751169681549, -0.016404608264565468, -0.01840595155954361, -0.06623204797506332, 0.08318502455949783, 0.11408956348896027, -0.019223641604185104, 0.22865521907806396, 0.07997985929250717, -0.1512666791677475, 0.035623569041490555, 0.07369094341993332, -0.12492965161800385, 0.03681493178009987, 0.206628680229187, -0.062183622270822525, -0.05935399606823921, -0.2141888439655304, -0.171677365899086], [0.008155728690326214, 0.010880425572395325, 0.17576932907104492, -0.168051078915596, 0.09418328106403351, -0.11818290501832962, -0.20511643588542938, -0.09883808344602585, -0.023099813610315323, 0.17238901555538177, -0.08070287853479385, -0.14234286546707153, 0.10616054385900497, -0.17783157527446747, -0.03316353261470795, -0.015171673148870468, 0.06769654154777527, -0.2281263768672943, -0.010103737004101276, -0.04276897385716438, 0.19509339332580566, 0.05374576896429062, -0.12091462314128876, 0.19121725857257843, 0.09151660650968552, 0.16545073688030243, -0.12741684913635254, 0.22182504832744598, 0.11595416814088821, 0.18439292907714844, 0.07435041666030884, -0.1416466236114502], [0.047771651297807693, -0.040635015815496445, 0.05363187566399574, 0.244014173746109, -0.038212064653635025, -0.21196851134300232, 0.24421723186969757, 0.013125348836183548, 0.16829051077365875, -0.02055525965988636, -0.07344648987054825, -0.028198424726724625, 0.18773306906223297, 0.16798029839992523, -0.0682777464389801, 0.2007751762866974, -0.11079338192939758, 0.057644471526145935, 0.06874008476734161, 0.30228671431541443, 0.02592400275170803, -0.05997379124164581, 0.11313621699810028, 0.036686334758996964, 0.1260989010334015, -0.10372220724821091, 0.2843381464481354, 0.1925446093082428, -0.21042300760746002, 0.14193804562091827, -0.05156297981739044, -0.16564857959747314], [0.11231829226016998, 0.13070648908615112, 0.03681093081831932, 0.06523378938436508, 0.025601595640182495, -0.1831616759300232, -0.193409264087677, -0.12736772000789642, 0.037178244441747665, 0.11493068933486938, -0.1348370462656021, 0.25287795066833496, 0.042823221534490585, 0.18496949970722198, -0.08819663524627686, -0.017811084166169167, 0.12959405779838562, 0.07523342221975327, -0.030132394284009933, -0.0422128327190876, 0.23123860359191895, 0.07029066234827042, -0.07630705833435059, 0.1282271444797516, -0.17728818953037262, 0.06763530522584915, -0.13865599036216736, -0.25052860379219055, 0.054640088230371475, 0.1749613732099533, -0.12324988842010498, 0.12984195351600647], [-0.07872683554887772, 0.14558382332324982, 0.22039881348609924, -0.06846413016319275, -0.21708783507347107, -0.06379623711109161, 0.26990509033203125, -0.08932435512542725, 0.07350220531225204, 0.01938159205019474, -0.21038351953029633, -0.0884864553809166, 0.02324611321091652, 0.08524435013532639, -0.1719711720943451, -0.0025455099530518055, 0.06478489935398102, 0.2930627167224884, 0.006595284212380648, 0.19888344407081604, 0.16445298492908478, -0.02419394440948963, 0.03632264956831932, -0.12643609941005707, -0.160670205950737, -0.19747497141361237, 0.1224297434091568, 0.023027222603559494, -0.2006157785654068, -0.22451436519622803, -0.11700182408094406, -0.07163673639297485], [0.26345768570899963, -0.008629191666841507, 0.22292819619178772, 0.22879938781261444, -0.08350443094968796, 0.23033197224140167, 0.14352887868881226, 0.10622404515743256, -0.19373124837875366, -0.1664513200521469, 0.2162477821111679, 0.06176024675369263, 0.0651715025305748, -0.14313377439975739, 0.2325383722782135, 0.2287701964378357, 0.07857830822467804, 0.257824182510376, 0.18416091799736023, -0.06061685457825661, -0.07196006923913956, -0.047240931540727615, 0.0908617377281189, 0.18168343603610992, -0.16441528499126434, 0.12096551060676575, -0.1137528121471405, 0.19187529385089874, -0.008346929214894772, -0.07866788655519485, -0.1235431581735611, 0.06371929496526718], [-0.17834779620170593, -0.18179376423358917, 0.10259301960468292, 0.15479432046413422, -0.10825338214635849, -0.06521096080541611, 0.146340012550354, -0.001083147362805903, 0.12271949648857117, -0.06154351308941841, 0.2789633870124817, 0.12214876711368561, -0.13474710285663605, -0.17928390204906464, 0.0012490306980907917, -0.12813898921012878, -0.023086264729499817, 0.0972433090209961, -0.1608451008796692, 0.19160549342632294, 0.2521495223045349, 0.12686042487621307, 0.07571724057197571, -0.026192139834165573, -0.026955025270581245, -0.1423896849155426, 0.17692580819129944, -0.06965833902359009, -0.10564811527729034, -0.21815523505210876, 0.0620906725525856, -0.0275442972779274], [-0.13886623084545135, 0.035099878907203674, 0.06714680045843124, -0.11291522532701492, 0.12246403843164444, 0.13322770595550537, 0.04473076015710831, 0.16751810908317566, 0.01486955489963293, -0.13454319536685944, 0.005621804855763912, -0.1909317970275879, -0.22229956090450287, -0.08704254776239395, 0.1915408968925476, 0.1759108155965805, -0.10866273939609528, 0.00021132876281626523, -0.05446673184633255, 0.15886129438877106, -0.10270021110773087, -0.19933649897575378, -0.032030556350946426, -0.06619200855493546, 0.17673318088054657, 0.1432376205921173, -0.20675918459892273, -0.2118469774723053, 0.12218126654624939, 0.16335023939609528, 0.0831303820014, 0.08957218378782272], [-0.15065640211105347, 0.1911419928073883, -0.07396581023931503, -0.22939838469028473, 0.004254110623151064, -0.08171544224023819, -0.08602557331323624, 0.0038625476881861687, 0.12097868323326111, 0.033891789615154266, -0.22926275432109833, 0.2919003963470459, 0.159878209233284, -0.133025661110878, -0.040570225566625595, 0.08353455364704132, 0.08792870491743088, 0.04744434729218483, 0.18314985930919647, -0.0027135934215039015, -0.1013917475938797, 0.013387379236519337, -0.056366875767707825, 0.152442067861557, 0.11916380375623703, -0.16134528815746307, -0.1117316484451294, -0.24399426579475403, 0.05289791151881218, 0.11488666385412216, -0.12724383175373077, 0.12935395538806915], [-0.20444032549858093, 0.22263388335704803, -0.0991632342338562, -0.2313513457775116, 0.15194502472877502, 0.05592306703329086, 0.0004582873953040689, -0.14952142536640167, -0.11114728450775146, 0.23934516310691833, -0.05779764801263809, 0.16344106197357178, 0.12952923774719238, -0.2159530222415924, 0.13891007006168365, 0.0314098596572876, 0.14259660243988037, -0.24902358651161194, 0.04939419776201248, -0.2182489037513733, -0.07141317427158356, -0.06487713009119034, 0.07981791347265244, -0.13929370045661926, 0.15207627415657043, 0.20987313985824585, 0.17939697206020355, 0.005698545835912228, 0.18124695122241974, 0.04067780449986458, 0.17815452814102173, 0.17979121208190918], [-0.1358424574136734, 0.10589666664600372, 0.22116956114768982, -0.08952365815639496, 0.026180792599916458, 0.03136390075087547, 0.12403479963541031, -0.15632832050323486, -0.05216393992304802, -0.12291856855154037, -0.10281635075807571, 0.1791081428527832, -0.025410272181034088, -0.180103600025177, 0.19788891077041626, -0.028826458379626274, -0.0842878520488739, -0.11105900257825851, 0.1522054225206375, -0.17533235251903534, 0.07117575407028198, 0.11502963304519653, 0.08135561645030975, 0.12611310184001923, 0.10556463897228241, -0.10039691627025604, 0.09631060063838959, 0.24407434463500977, 0.10063272714614868, 0.008272462524473667, -0.20824868977069855, 0.13035371899604797], [-0.12406182289123535, -0.20440715551376343, 0.19716307520866394, 0.01201277133077383, -0.026170950382947922, -0.17467772960662842, 0.037682123482227325, -0.15577805042266846, -0.08999965339899063, -0.008405027911067009, 0.0859643816947937, -0.2504754364490509, 0.08022168278694153, -0.03858703374862671, 0.22717924416065216, 0.15032373368740082, -0.17343242466449738, 0.1587817668914795, -0.00457539688795805, 0.09485020488500595, -0.09443657100200653, 0.07124963402748108, 0.05603329837322235, 0.08454861491918564, -0.06376030296087265, -0.15777850151062012, 0.20111046731472015, 0.032750703394412994, -0.006305182818323374, 0.20680561661720276, -0.14717218279838562, 0.11619158089160919], [0.1864730268716812, -0.05126174911856651, 0.19160863757133484, -0.16854256391525269, 0.20366907119750977, 0.16760483384132385, 0.126410573720932, -0.07389936596155167, -0.10023041814565659, -0.1858060359954834, -0.20891089737415314, 0.21923844516277313, -0.05931510776281357, 0.020395437255501747, -0.1039041057229042, -0.08222049474716187, -0.10685519874095917, 0.05972649157047272, -0.11717421561479568, -0.12889833748340607, 0.19369660317897797, -0.016191022470593452, 0.06429383158683777, 0.0733853429555893, 0.10592319071292877, 0.1255675107240677, -0.1695900559425354, 0.22887621819972992, 0.054552409797906876, -0.11588793247938156, 0.03479183465242386, 0.042260296642780304], [0.13905639946460724, -0.057179760187864304, -0.04916059598326683, -0.06250828504562378, 0.16567392647266388, 0.11866272985935211, 0.09586647897958755, 0.009087074548006058, -0.05525326356291771, 0.24144341051578522, 0.12612640857696533, 0.07453896105289459, 0.1735595464706421, 0.09663143008947372, -0.2262951135635376, -0.11911417543888092, 0.02749137207865715, -0.09284880757331848, -0.10627401620149612, -0.1782580018043518, -0.10325630754232407, -0.17815089225769043, -0.07707520574331284, -0.046598099172115326, -0.1554270088672638, -0.07186951488256454, 0.08747094124555588, 0.03705746307969093, 0.06440328806638718, 0.0898168608546257, 0.03505101054906845, -0.1968279927968979], [-0.13708321750164032, 0.11182171106338501, 0.046733614057302475, -0.14778175950050354, 0.17865273356437683, -0.17757534980773926, -0.0665230005979538, 0.03901766240596771, 0.22246414422988892, -0.03789324685931206, 0.15637733042240143, -0.020651863887906075, -0.21028174459934235, 0.006084705702960491, 0.06705506145954132, 0.11168356984853745, -0.019873416051268578, 0.11805632710456848, -0.015067975036799908, -0.03249432519078255, 0.031328242272138596, 0.12789393961429596, -0.046232447028160095, 0.06958893686532974, -0.18470428884029388, 0.08969210833311081, -0.010939385741949081, 0.013073036447167397, -0.19440174102783203, -0.04257562756538391, 0.06749597936868668, 0.04069291800260544], [-0.16748450696468353, -0.20309683680534363, -0.0014529520412907004, 0.08262111246585846, -0.07483070343732834, 0.11921679973602295, -0.13645045459270477, -0.12755244970321655, -0.16535143554210663, -0.2097063660621643, -0.15743599832057953, 0.08910651504993439, 0.24483908712863922, -0.12537208199501038, -0.12691740691661835, -0.12460827082395554, 0.019472826272249222, -0.089646115899086, -0.06109745427966118, 0.2474278062582016, 0.26166486740112305, 0.07947193086147308, -0.02166881412267685, -0.09508782625198364, 0.06553542613983154, 0.08500665426254272, 0.15861859917640686, 0.0039453767240047455, 0.11335666477680206, -0.13320235908031464, 0.15385304391384125, 0.0958578810095787], [-0.008551007136702538, -0.14069217443466187, -0.12491270899772644, 0.0781039148569107, 0.06661079823970795, -0.03644086793065071, 0.25601673126220703, 0.00603018281981349, -0.1112489178776741, -0.08865456283092499, -0.15140537917613983, -0.10883144289255142, 0.1011773943901062, 0.07845872640609741, -0.16990116238594055, 0.20242932438850403, -0.010255761444568634, 0.16348282992839813, -0.20556415617465973, 0.09131518751382828, 0.03672625496983528, -0.01694711670279503, -0.021663308143615723, 0.12116385251283646, -0.08886958658695221, -0.14554643630981445, 0.0591169074177742, 0.22666893899440765, 0.08851984888315201, -0.09041831642389297, 0.13155066967010498, 0.04073082283139229], [-0.11427242308855057, 0.16703122854232788, 0.05953460559248924, 0.1397385448217392, 0.18387925624847412, 0.09742351621389389, 0.19195128977298737, 0.192972794175148, 0.0747532844543457, -0.20640210807323456, 0.1259227991104126, -0.11024338006973267, 0.21927732229232788, -0.11780579388141632, -0.09054198861122131, -0.05439450591802597, -0.09101829677820206, -0.05384908616542816, -0.25134220719337463, -0.15007932484149933, -0.10836087912321091, -0.0349343866109848, 0.04817577078938484, 0.10701613128185272, -0.03402923047542572, 0.11197979003190994, 0.1399330049753189, 0.1866370439529419, 0.1524939239025116, 0.1603829562664032, -0.11083879321813583, -0.002785385586321354], [0.025469761341810226, 0.10672593116760254, 0.2554846704006195, 0.20824187994003296, -0.07925184071063995, 0.23800672590732574, 0.25147122144699097, -0.1570960134267807, 0.13079948723316193, 0.2077445387840271, -0.1650930792093277, -0.1318487673997879, 0.18387305736541748, -0.0034784949384629726, 0.21290312707424164, 0.19940190017223358, -0.05443830415606499, 0.15211732685565948, 0.1917576789855957, 0.16881579160690308, 0.22530800104141235, 0.03650691360235214, 0.011815019883215427, 0.09490291029214859, -0.04489372670650482, -0.20611335337162018, 0.16185890138149261, 0.10638986527919769, 0.19169774651527405, -0.11870519071817398, 0.07568784803152084, -0.07198689132928848], [-0.22893665730953217, 0.1734846532344818, -0.20433162152767181, -0.162679985165596, 0.09727758169174194, 0.03128597512841225, 0.10515403002500534, 0.04283905774354935, -0.16077573597431183, -0.1670396327972412, -0.13266372680664062, 0.14351443946361542, 0.08325261622667313, 0.14030998945236206, -0.2057211697101593, 0.19695428013801575, -0.009242975153028965, 0.220002219080925, 0.12236712872982025, -0.006323172710835934, 0.22644180059432983, -0.04510775953531265, -0.12245277315378189, -0.09839469194412231, -0.1961541771888733, 0.17720454931259155, 0.2342289835214615, 0.13499635457992554, -0.09657399356365204, 0.09638277441263199, 0.2165564000606537, -0.00029753829585388303], [0.047857265919446945, 0.19262269139289856, 0.14899593591690063, 0.1872769296169281, 0.12172999233007431, -0.09996092319488525, 0.14355042576789856, 0.1403621882200241, 0.2032482773065567, -0.21419741213321686, 0.05864427611231804, -0.13886381685733795, -0.22253543138504028, -0.05270639434456825, 0.20637303590774536, -0.09444008022546768, -0.0411650724709034, -0.21634143590927124, -0.12537989020347595, -0.1310010701417923, -0.06535272300243378, -0.024177972227334976, 0.07075394690036774, -0.024868234992027283, 0.226250559091568, -0.08585841953754425, -0.052027441561222076, 0.19055482745170593, 0.09992140531539917, -0.025902945548295975, -0.0873289555311203, 0.19448915123939514], [-0.12794511020183563, -0.12439526617527008, -0.05202360823750496, 0.13092954456806183, 0.0806889533996582, -0.09711147099733353, 0.13950365781784058, -0.10453931987285614, 0.0528571754693985, 0.17861080169677734, -0.026442700996994972, -0.07473013550043106, 0.10169597715139389, -0.1267155110836029, 0.17675653100013733, 0.15697963535785675, -0.08608334511518478, 0.05666330084204674, 0.04804595187306404, -0.039311252534389496, 0.061575859785079956, 0.13512051105499268, 0.07752858102321625, 0.20355606079101562, 0.10994532704353333, -0.10167180001735687, 0.04455725848674774, 0.2805868089199066, -0.15438686311244965, 0.20102517306804657, 0.08107668906450272, -0.1047363430261612], [-0.05624939128756523, 0.004623835440725088, -0.11879483610391617, -0.005061590578407049, 0.07490972429513931, -0.05096777155995369, -0.13975371420383453, -0.08274703472852707, 0.10835418105125427, -0.06926030665636063, -0.027522346004843712, 0.0360102578997612, 0.09373808652162552, -0.09218528866767883, 0.18587161600589752, 0.15719832479953766, -0.017275379970669746, -0.03804023191332817, -0.041278548538684845, 0.195309579372406, 0.18592116236686707, 0.04319431260228157, 0.03801008686423302, -0.07695458084344864, -0.07689301669597626, 0.2010188102722168, -0.16754324734210968, -0.1809481978416443, 0.20756173133850098, 0.17451299726963043, -0.025056330487132072, 0.11540155112743378], [0.06654408574104309, 0.061879947781562805, -0.018906764686107635, -0.05580785498023033, 0.16571730375289917, -0.0238387119024992, -0.040427472442388535, 0.034892067313194275, -0.16323788464069366, -0.06773187965154648, 0.07201125472784042, 0.05845089629292488, 0.010808734223246574, 0.20372657477855682, 0.18839751183986664, 0.05910765752196312, -0.12368667125701904, -0.10043996572494507, 0.11652066558599472, -0.12157974392175674, 0.10631810128688812, -0.12204983085393906, -0.10090798139572144, 0.028874875977635384, 0.1891138106584549, -0.1557571440935135, 0.11231988668441772, -0.017462177202105522, 0.16828304529190063, 0.06556212157011032, 0.26578956842422485, -0.07432089000940323], [-0.0926080197095871, 0.13948939740657806, 0.2305157482624054, 0.13386325538158417, -0.033395782113075256, 0.08256768435239792, -0.0016942948568612337, 0.053422823548316956, 0.15368209779262543, 0.27374032139778137, -0.07880501449108124, -0.15029260516166687, 0.2126871794462204, -0.2105138748884201, 0.2373250126838684, -0.06873165816068649, -0.02975786104798317, 0.25126928091049194, 0.06094333902001381, 0.12528586387634277, 0.2037561535835266, -0.14260654151439667, 0.15998733043670654, -0.1612062156200409, -0.10995958745479584, 0.13810059428215027, -0.04056157171726227, -0.18332746624946594, -0.09019497036933899, -0.04512587562203407, -0.1970306932926178, 0.1591377705335617], [0.04581509158015251, 0.20888374745845795, -0.11359836906194687, 0.14990556240081787, 0.05607876554131508, 0.012690543197095394, -0.09089110791683197, -0.18404705822467804, -0.02637648954987526, 0.040983427315950394, 0.23002441227436066, 0.06882478296756744, -0.023629210889339447, -0.07558661699295044, 0.21443219482898712, -0.10651510953903198, 0.07176338881254196, 0.16162557899951935, 0.07294834405183792, -0.13073791563510895, 0.20473091304302216, 0.055454932153224945, -0.04498344287276268, 0.1803467869758606, 0.22342586517333984, -0.15594364702701569, 0.009110522456467152, -0.041132599115371704, 0.16334563493728638, -0.1497558355331421, -0.06393766403198242, 0.1013178676366806], [-0.001244286191649735, -0.09860887378454208, -0.1173505187034607, 0.18790826201438904, 0.018316693603992462, -0.01778135448694229, -0.10495137423276901, 0.12720617651939392, -0.05927133187651634, 0.025041360408067703, 0.1952511966228485, 0.021141061559319496, 0.023448292165994644, -0.02753795124590397, -0.03508797287940979, -0.17813362181186676, 0.21904590725898743, -0.02140885218977928, -0.20549187064170837, -0.05320823937654495, 0.1183488667011261, -0.009846585802733898, -0.046739641577005386, -0.004148826934397221, -0.08216342329978943, -0.21328970789909363, -0.20562423765659332, -0.17375043034553528, -0.01564871147274971, 0.07077179849147797, 0.07315640896558762, 0.05474177002906799], [-0.08229750394821167, 0.14896102249622345, 0.2697473466396332, 0.20501691102981567, 0.17274151742458344, -0.17431265115737915, 0.07597976177930832, 0.0686400905251503, 0.04512244835495949, 0.006833680905401707, 0.13689211010932922, 0.21632441878318787, 0.06351078301668167, -0.10138934850692749, -0.13914155960083008, 0.14856700599193573, -0.055027902126312256, -0.18933725357055664, -0.22196878492832184, 0.023373756557703018, 0.22575686872005463, -0.09153218567371368, -0.0606989711523056, 0.09061630070209503, -0.05551939830183983, 0.1791715770959854, 0.13816618919372559, 0.20261256396770477, 0.11285655945539474, 0.022860484197735786, 0.009214909747242928, 0.1315682828426361], [-0.10224734991788864, 0.16034917533397675, -0.22334317862987518, -0.17155767977237701, -0.09851701557636261, 0.21196696162223816, -0.19760601222515106, 0.10394033044576645, -0.05330437049269676, -0.12967263162136078, -0.21349504590034485, -0.017420442774891853, -0.09495333582162857, 0.14020559191703796, -0.08520288020372391, -0.049427568912506104, 0.0819210559129715, -0.25939011573791504, -0.2555290758609772, -0.26151609420776367, 0.1939259022474289, -0.13371607661247253, 0.025270504876971245, 0.05159406736493111, 0.22090758383274078, -0.005819694139063358, -0.15462107956409454, -0.16288189589977264, 0.1858641505241394, -0.08863461017608643, 0.19750604033470154, 0.01640493795275688], [0.057538699358701706, -0.0495355948805809, 0.11814145743846893, -0.13287746906280518, -0.09539686888456345, -0.20066459476947784, 0.08780671656131744, 0.07523505389690399, 0.1537202149629593, 0.14882969856262207, 0.21437354385852814, 0.2016856074333191, 0.1057949885725975, 0.03945685178041458, -0.18184109032154083, -0.013258608989417553, -0.09954879432916641, -0.17116676270961761, -0.09184882044792175, -0.11305508762598038, 0.020084932446479797, 0.025283530354499817, -0.05222645401954651, -0.10667730867862701, -0.14744450151920319, -0.007951481267809868, 0.25436216592788696, 0.17035508155822754, 0.1952715516090393, 0.03347281366586685, 0.2349974364042282, -0.08961015939712524], [-0.10744253545999527, 0.05892043560743332, 0.08064945042133331, -0.1623215228319168, -0.1752762347459793, -0.19567802548408508, -0.11839702725410461, -0.11295995861291885, 0.1711263209581375, 0.01851641573011875, 0.00911801028996706, -0.006362629123032093, 0.1543097198009491, 0.04705161601305008, -0.12117704749107361, 0.0020524440333247185, -0.0016049686819314957, 0.188528373837471, 0.048143431544303894, -0.1059904545545578, 0.1628182977437973, -0.1250493973493576, 0.07050162553787231, -0.0004553945327643305, -0.022372251376509666, 0.11160594969987869, 0.19545167684555054, 0.1640544980764389, -0.017188992351293564, -0.03997078165411949, -0.11126420646905899, 0.13861830532550812], [0.1954081654548645, 0.01663319021463394, -0.022318603470921516, 0.044073741883039474, -0.09623744338750839, 0.25780996680259705, -0.13924692571163177, 0.002513728803023696, -0.17661838233470917, 0.22249867022037506, 0.23436224460601807, -0.08956583589315414, 0.08338785171508789, 0.06733930855989456, 0.028572527691721916, 0.1793096661567688, 0.08988098800182343, -0.002894163131713867, -0.07835638523101807, -0.1687234342098236, 0.2084784209728241, 0.16977249085903168, -0.03934898227453232, -0.021723000332713127, 0.029671259224414825, 0.2658054232597351, -0.22673572599887848, -0.21903426945209503, 0.24729955196380615, -0.015449370257556438, 0.1479663997888565, 0.20488059520721436], [-0.18740776181221008, -0.0263910423964262, -0.055039700120687485, -0.02953585423529148, 0.1478830724954605, 0.11524628847837448, -0.13701339066028595, -0.1383093148469925, -0.1223459392786026, -0.022762883454561234, 0.07162372022867203, 0.24560120701789856, -0.20757685601711273, -0.11090269684791565, -0.004403506871312857, -0.027270033955574036, 0.004663000348955393, -0.09583710134029388, 0.07687873393297195, 0.14549048244953156, 0.028246460482478142, 0.1767885535955429, -0.04155538231134415, -0.15538717806339264, -0.18304012715816498, 0.17174850404262543, -0.11504951864480972, -0.06272771954536438, -0.12177929282188416, 0.02264363132417202, -0.1026197001338005, -0.04352935031056404], [0.10802638530731201, 0.0410725362598896, -0.046715062111616135, -0.018928343430161476, -0.17929860949516296, 0.11634957790374756, -0.02198675274848938, 0.2183508276939392, -0.14985153079032898, 0.007755468599498272, -0.05506734177470207, -0.06422358751296997, -0.013274051249027252, -0.1564975380897522, -0.09246847033500671, -0.034028712660074234, 0.13503658771514893, -0.09707099944353104, 0.20931383967399597, -0.2606985569000244, 0.023179413750767708, -0.012831248342990875, -0.06674738228321075, -0.023742016404867172, -0.018612109124660492, 0.2051304131746292, 0.1477169245481491, -0.09663378447294235, 0.04106897860765457, 0.04838964715600014, 0.16324089467525482, -0.09623045474290848], [-0.15566286444664001, 0.09653125703334808, 0.11817099153995514, 0.025223383679986, -0.18377672135829926, -0.08041756600141525, 0.042018964886665344, 0.05657585710287094, -0.0030449391342699528, 0.09287561476230621, -0.18556702136993408, 0.06598551571369171, 0.12663675844669342, -0.12263032048940659, 0.22324523329734802, -0.1196720227599144, -0.015988502651453018, 0.21718046069145203, -0.06178749352693558, 0.05888852849602699, 0.2390720099210739, -0.14217647910118103, -0.028675992041826248, -0.04139270260930061, -0.19667424261569977, 0.1934388130903244, -0.21087715029716492, 0.25529322028160095, 0.12597134709358215, -0.1368393450975418, -0.051170166581869125, -0.07848310470581055], [0.024466359987854958, 0.19241514801979065, -0.08000998944044113, -0.1136055514216423, -0.011040085926651955, -0.07697193324565887, -0.04343352094292641, 0.11901158839464188, 0.006112829782068729, -0.09622417390346527, -0.20979905128479004, 0.27831801772117615, -0.11395873129367828, -0.1577964574098587, 0.18957218527793884, -0.09123830497264862, -0.009285377338528633, 0.1293165385723114, -0.15436865389347076, -0.24413377046585083, 0.12328583747148514, -0.023886248469352722, -0.0814376100897789, 0.017858142033219337, 0.005440643057227135, -0.12362588942050934, -0.19813430309295654, -0.2860789895057678, 0.225615456700325, 0.044035207480192184, -0.18525171279907227, -0.18584050238132477], [-0.1630520075559616, 0.042004719376564026, 0.14443378150463104, 0.06230512261390686, 0.07005597651004791, -0.011626343242824078, 0.17710666358470917, -0.09993171691894531, 0.13661311566829681, -0.0875348374247551, -0.09021180868148804, -0.1641293615102768, 0.08506234735250473, 0.04647773504257202, 0.1652495563030243, 0.015438208356499672, -0.005263634491711855, 0.09865501523017883, -0.08839792013168335, 0.20946791768074036, 0.2796382009983063, -0.08146028965711594, 0.09496302902698517, -0.004136628936976194, 0.051404211670160294, 0.04112226143479347, 0.24530558288097382, 0.21407900750637054, 0.25199124217033386, -0.08905355632305145, 0.09505245834589005, 0.06950969249010086], [0.051846206188201904, -0.12461570650339127, 0.32470354437828064, -0.08121111243963242, -0.03100392408668995, -0.0663728415966034, 0.06211661547422409, 0.06067735701799393, -0.05835400149226189, -0.1273266226053238, -0.10291606187820435, -0.11337851732969284, -0.0005657167639583349, 0.11865226924419403, -0.16389575600624084, -0.052946560084819794, -0.09248946607112885, 0.024556096643209457, 0.19680896401405334, -0.03050050511956215, -0.04902603477239609, -0.06232038140296936, -0.06581558287143707, -0.15825772285461426, 0.0786956325173378, 0.03227629512548447, 0.16670995950698853, -0.12089978158473969, -0.0541149340569973, 0.04359445348381996, -0.024416491389274597, -0.11339092254638672], [-0.11651299148797989, 0.14869076013565063, 0.22194373607635498, 0.16339737176895142, 0.20287050306797028, -0.12875595688819885, -0.054628144949674606, 0.14317993819713593, 0.053539425134658813, 0.05851202830672264, -0.023097744211554527, -0.1071871891617775, -0.0002948875189758837, 0.13053499162197113, 0.11797089129686356, 0.23695462942123413, 0.1893458217382431, -0.10177800804376602, -0.1556807905435562, 0.17707835137844086, 0.16335004568099976, -0.1054142490029335, -0.01854543387889862, 0.2529359757900238, 0.16258899867534637, -0.03489761799573898, 0.25884702801704407, 0.2468675822019577, -0.01872660033404827, 0.01989166811108589, -0.1364210695028305, -0.024169921875], [0.16182644665241241, 0.1000499352812767, -0.06282777339220047, 0.2509312331676483, 0.07105451822280884, 0.017466401681303978, 0.14902512729167938, -0.06796129792928696, -0.07248895615339279, 0.0030797398649156094, -0.10722696036100388, -0.20331841707229614, -0.08109511435031891, -0.1542460173368454, -0.13674309849739075, -0.1509920060634613, -0.0008441354148089886, 0.03969085216522217, -0.02697930298745632, 0.14044812321662903, 0.23319588601589203, -0.17928031086921692, -0.04782169684767723, -0.11101437360048294, 0.12442875653505325, 0.1602851003408432, 0.055393654853105545, -0.08394385874271393, 0.22667711973190308, 0.10766908526420593, 0.06774993240833282, 0.1138111874461174], [0.08580130338668823, -0.10202545672655106, 0.17778337001800537, 0.005768307484686375, 0.013163822703063488, -0.05902355909347534, 0.05810895934700966, -0.13001662492752075, -0.016133591532707214, 0.1623021513223648, -0.1195000633597374, -0.1267326921224594, -0.09791775047779083, 0.1747690737247467, 0.08611062914133072, -0.11979932337999344, 0.047222528606653214, 0.2006024718284607, 0.08730217069387436, 0.05906258523464203, -0.03416642174124718, -0.02244492620229721, 0.04943736270070076, 0.09750000387430191, -0.05675540491938591, -0.07436925172805786, 0.007259995210915804, 0.1174117773771286, -0.1490621566772461, -0.0367094948887825, -0.126839280128479, -0.029349040240049362], [-0.1789005696773529, 0.22506465017795563, -0.1505281627178192, -0.12671531736850739, 0.059947602450847626, 0.1288933902978897, -0.06464110314846039, -0.0466647706925869, 0.061921995133161545, 0.039306122809648514, -0.15298253297805786, 0.23770669102668762, 0.14722400903701782, 0.0065907882526516914, 0.2525791525840759, 0.051098257303237915, 0.013711503706872463, 0.02155107818543911, -0.17301461100578308, -0.18811550736427307, 0.24906715750694275, 0.014955316670238972, -0.007649423088878393, -0.08759093284606934, -0.01526876911520958, 0.2722752094268799, -0.00492814090102911, 0.18878237903118134, -0.012228471226990223, -0.048950597643852234, -0.068137988448143, -0.08830497413873672], [0.16379444301128387, -0.1468856930732727, -0.11197566241025925, -0.03642385080456734, 0.13359905779361725, -0.15765145421028137, -0.0532049797475338, -0.12374185025691986, 0.043897248804569244, 0.052459560334682465, 0.28006502985954285, 0.035922180861234665, 0.09174834191799164, -0.028634684160351753, -0.032172851264476776, -0.1325344741344452, 0.06592438369989395, -0.09194300323724747, 0.15399020910263062, -0.059598397463560104, -0.11785497516393661, 0.17439831793308258, -0.05682484805583954, 0.09698060899972916, -0.13213813304901123, 0.16450746357440948, 0.20056086778640747, 0.0985698252916336, 0.04608424752950668, -0.11445263773202896, -0.1589944064617157, 0.063851498067379], [-0.11453172564506531, 0.1283281445503235, 0.2791493237018585, -0.13556745648384094, -0.08719935268163681, -0.08615531772375107, -0.13812503218650818, -0.0760364979505539, 0.10248102247714996, -0.10181117802858353, -0.14999283850193024, 0.16760985553264618, 0.018023090437054634, 0.06540658324956894, 0.20980969071388245, 0.06919734179973602, -0.08677468448877335, -0.143209308385849, -0.11074347794055939, -0.17825934290885925, 0.00411079078912735, -0.12640824913978577, -0.05018581822514534, -0.08895917981863022, -0.1891135722398758, -0.1716914176940918, 0.20765788853168488, 0.030933136120438576, -0.11758361011743546, -0.11708618700504303, 0.11859537661075592, -0.2157677859067917], [-0.01751522161066532, -0.021026523783802986, 0.078592948615551, 0.1870470643043518, 0.020008491352200508, 0.16668906807899475, 0.10443729907274246, 0.08671855181455612, -0.013052675873041153, -0.11548985540866852, -0.03747910261154175, -0.06347711384296417, -0.12368486821651459, -0.06005079671740532, 0.12813954055309296, 0.02654155157506466, 0.18280118703842163, 0.3306512236595154, 0.0982709601521492, 0.2786811292171478, -0.03301546350121498, -0.029656758531928062, -0.06692773103713989, -0.13290679454803467, -0.19013746082782745, -0.1818792223930359, -0.024793798103928566, 0.25057414174079895, -0.032247330993413925, 0.13196629285812378, 0.04045861214399338, -0.04707546904683113], [-0.03792696073651314, 0.09443394094705582, 0.13878920674324036, 0.14909331500530243, 0.16691194474697113, -0.00040656872442923486, -0.10987520962953568, -0.039430003613233566, -0.12843571603298187, -0.030882442370057106, 0.17412583529949188, 0.020823614671826363, 0.015708254650235176, 0.09536890685558319, 0.03636449575424194, 0.16412317752838135, 0.01585378497838974, -0.0047756158746778965, 0.17222341895103455, 0.1972554624080658, -0.09510120749473572, -0.04637196287512779, 0.0797063335776329, -0.148797407746315, -0.014027683064341545, 0.04174347594380379, 0.11312401294708252, 0.1696879267692566, -0.09895460307598114, -0.09057411551475525, -0.16754287481307983, 0.11402235925197601], [0.14633075892925262, -0.08118856698274612, -0.08880279213190079, -0.047683507204055786, 0.1009347215294838, 0.06161634996533394, -0.04555283486843109, -0.00513833574950695, -0.0902121365070343, 0.0301867313683033, -0.003334577428176999, -0.11106858402490616, -0.14631924033164978, -0.0825468972325325, 0.037094589322805405, -0.1208258718252182, -0.06937399506568909, 0.1846133917570114, 0.1916140764951706, 0.2739803194999695, 0.1541949361562729, 0.15818817913532257, -0.054953742772340775, -0.1706104874610901, -0.17739273607730865, -0.12021390348672867, -0.03734564036130905, -0.156663715839386, -0.0012328820303082466, 0.10606304556131363, -0.020087428390979767, 0.1490946263074875], [-0.045953553169965744, 0.0672931894659996, 0.015586797147989273, 0.27969756722450256, -0.02028881385922432, -0.16855549812316895, 0.13884995877742767, -0.025477886199951172, 0.04448797553777695, -0.2023037225008011, -0.10342228412628174, -0.019746502861380577, 0.21231816709041595, 0.016420701518654823, -0.19671259820461273, 0.08570157736539841, -0.05861392617225647, 0.2792056202888489, 0.13561119139194489, -0.041388481855392456, 0.15093213319778442, -0.0405907928943634, -0.021737664937973022, 0.04140708968043327, 0.07867330312728882, 0.13362906873226166, 0.13214825093746185, 0.14152702689170837, -0.1787729263305664, 0.053867045789957047, -0.133273646235466, 0.05057889223098755], [-0.08010568469762802, 0.09619162231683731, -0.045816730707883835, 0.1609947681427002, -0.11253446340560913, 0.23308709263801575, -0.020438846200704575, -0.07609372586011887, 0.06284065544605255, 0.008624820038676262, 0.14071530103683472, -0.15797024965286255, -0.07568207383155823, -0.20861367881298065, 0.08971673995256424, 0.1066199317574501, 0.1010279506444931, -0.19081063568592072, -0.025354402139782906, 0.14605830609798431, -0.09931869059801102, -0.05532094091176987, 0.026594379916787148, -0.1781037449836731, 0.19686612486839294, -0.15344302356243134, -0.06273578852415085, -0.08503399789333344, 0.06798733025789261, 0.044129256159067154, 0.1348658949136734, 0.06888359040021896]], [0.010429360903799534, 0.038478732109069824, 0.08362682163715363, 0.05058087408542633, 0.009198762476444244, 0.0590154305100441, 0.028284374624490738, -0.022345921024680138, -0.04458444193005562, 0.022685786709189415, 0.05616315081715584, -0.0018918627174571157, 0.021983694285154343, -0.01809372380375862, 0.025970006361603737, 0.034279678016901016, 0.013624943792819977, 0.041469961404800415, -0.026475239545106888, 0.04863469675183296, 0.09632856398820877, -0.009565132670104504, -0.003181417938321829, -0.0022127239499241114, -0.022592829540371895, 0.02991534024477005, 0.04096765071153641, 0.04882616177201271, 0.02477298304438591, -0.010498369112610817, -0.004319293890148401, -0.005040104500949383], [[0.12742231786251068, -0.004596867598593235, 0.17886056005954742, -0.0889730155467987, -0.27074623107910156, 0.021144064143300056, 0.26113560795783997, -0.038848064839839935, -0.017654797062277794, 0.031165091320872307, -0.19987040758132935, 0.11493795365095139, 0.17455855011940002, 0.17097152769565582, -0.05806773900985718, -0.3278408646583557], [-0.14891822636127472, 0.20906107127666473, -0.25714436173439026, -0.179787740111351, -0.0648883804678917, 0.11938131600618362, 0.014159619808197021, 0.054122600704431534, -0.01571814715862274, 0.336079865694046, -0.14033807814121246, -0.21460117399692535, 0.15632526576519012, -0.25702551007270813, 0.25538235902786255, -0.0020337249152362347], [0.01462023239582777, -0.008554673753678799, 0.4097282886505127, 0.3255465030670166, -0.10335363447666168, -0.12056350708007812, 0.21481366455554962, 0.062280215322971344, 0.03152991086244583, -0.10588238388299942, 0.0381021723151207, -0.1977093666791916, -0.15944167971611023, 0.10217892378568649, 0.34598493576049805, 0.28560465574264526], [0.0020253988914191723, 0.12222829461097717, 0.29215484857559204, -0.12074878811836243, 0.18934285640716553, 0.07566593587398529, 0.02552127279341221, 0.04141185060143471, 0.1292143613100052, -0.21774432063102722, 0.20666690170764923, 0.46666839718818665, 0.1977820098400116, -0.1531277596950531, 0.3467341363430023, -0.05052577704191208], [0.0018708351999521255, 0.16563209891319275, -0.13842004537582397, 0.08652090281248093, -0.14177510142326355, -0.08627166599035263, 0.011656233109533787, -0.28747835755348206, -0.19871313869953156, -0.1212041825056076, -0.2839888334274292, 0.21236038208007812, 0.2131127566099167, 0.12470927089452744, -0.3494398593902588, 0.2095051407814026], [0.00043910814565606415, 0.36475852131843567, -0.09888357669115067, -0.05010315403342247, -0.0702359601855278, 0.04221942275762558, -0.2691618502140045, 0.1844731867313385, 0.31528010964393616, 0.18567390739917755, -0.14553062617778778, 0.14576928317546844, 0.30732816457748413, 0.1425773799419403, 0.25091564655303955, 0.14195112884044647], [0.015809470787644386, -0.08179841935634613, -0.005022307857871056, 0.005382337607443333, 0.035936202853918076, 0.034757163375616074, 0.4242364466190338, 0.054516226053237915, -0.017900770530104637, 0.2523554861545563, 0.10752100497484207, -0.18940536677837372, -0.21356724202632904, -0.09758773446083069, 0.3681074380874634, -0.09729202091693878], [0.13411249220371246, 0.23903541266918182, -0.13656653463840485, 0.07169900089502335, -0.24763453006744385, 0.008444060571491718, 0.26699504256248474, -0.16817626357078552, -0.052897900342941284, -0.2264949381351471, -0.1864713430404663, -0.1614040732383728, -0.10851582139730453, 0.16578228771686554, -0.20573174953460693, 0.17708173394203186], [-0.14739462733268738, -0.2038244903087616, 0.08775125443935394, -0.31560856103897095, -0.3034111261367798, -0.05348683521151543, -0.17943085730075836, -0.2696196734905243, 0.041127558797597885, 0.14635969698429108, 0.2368350625038147, -0.17053207755088806, 0.10487663000822067, 0.21716022491455078, -0.02794928476214409, -0.09183768928050995], [0.020649082958698273, 0.256061315536499, 0.0674295499920845, 0.28189516067504883, 0.21480700373649597, -0.014917309395968914, -0.27454960346221924, -0.07663129270076752, 0.00669229868799448, 0.25123488903045654, 0.026419010013341904, -0.19722092151641846, -0.06479742377996445, 0.18266001343727112, -0.18834973871707916, 0.24843838810920715], [0.05184471234679222, -0.218563973903656, 0.19885097444057465, -0.31704065203666687, -0.016588987782597542, 0.13707076013088226, 0.26551568508148193, 0.15056456625461578, -0.08438067138195038, 0.2157442420721054, 0.14385680854320526, -0.01704932190477848, -0.07441769540309906, -0.1098242998123169, 0.02331092208623886, -0.06370910257101059], [-0.09784408658742905, 0.10834331065416336, -0.12211266160011292, -0.25827333331108093, 0.23870304226875305, -0.03920713812112808, -0.3329051733016968, -0.21393084526062012, 0.019415797665715218, 0.09088118374347687, 0.1829165369272232, -0.00855630449950695, 0.19821421802043915, 0.06195268779993057, -0.21227185428142548, 0.31102776527404785], [-0.0954638347029686, -0.1283012479543686, 0.16448915004730225, 0.30600985884666443, 0.2863706350326538, -0.05479821562767029, 0.31437304615974426, -0.11340739578008652, 0.2717720568180084, 0.1362701803445816, -0.06401727348566055, -0.13770939409732819, -0.13170737028121948, 0.28972795605659485, -0.08033964782953262, -0.26169082522392273], [0.12395478039979935, -0.16921716928482056, 0.24104224145412445, -0.16220495104789734, -0.09524255990982056, -0.060990091413259506, -0.0857350304722786, -0.3104991018772125, -0.21895059943199158, 0.09118283540010452, 0.22963669896125793, 0.07281679660081863, -0.08740115165710449, 0.13669945299625397, 0.31292611360549927, 0.04292013496160507], [-0.14627577364444733, 0.11272185295820236, 0.022630220279097557, -0.007048362400382757, -0.17984811961650848, 0.047189511358737946, -0.14945711195468903, 0.20981858670711517, -0.06043730303645134, 0.27874884009361267, -0.04129190742969513, -0.13235460221767426, 0.15114982426166534, 0.06448350101709366, 0.19385647773742676, 0.35206013917922974], [-0.15197251737117767, -0.3094637989997864, 0.18571360409259796, 0.16704222559928894, 0.1362243890762329, -0.08350431174039841, 0.11512211710214615, 0.04623343423008919, 0.23837850987911224, -0.24876432120800018, -0.061359964311122894, -0.14273551106452942, -0.09530005604028702, -0.12297028303146362, -0.05930019170045853, 0.07045947760343552], [-0.08143986761569977, -0.0957878977060318, -0.07417546957731247, 0.1386871188879013, 0.13629239797592163, 0.0052104429341852665, 0.07458841800689697, 0.23151153326034546, 0.04457440599799156, 0.25672808289527893, -0.25523900985717773, -0.09571079909801483, 0.2495698183774948, 0.022245457395911217, 0.2379782646894455, -0.10373560339212418], [0.018967727199196815, -0.10105050355195999, 0.37567973136901855, -0.09964588284492493, -0.03197479248046875, -0.151010662317276, 0.45685064792633057, -0.10087212920188904, -0.12649977207183838, -0.23799046874046326, -0.10834250599145889, 0.28207096457481384, 0.07776591181755066, -0.08206216990947723, 0.012083853594958782, -0.33476880192756653], [0.04632076621055603, -0.1681538224220276, 0.06177842989563942, -0.0788840726017952, -0.00021891025244258344, -0.015859968960285187, -0.046365346759557724, -0.33303797245025635, 0.044543031603097916, -0.29204052686691284, 0.15699151158332825, 0.26354557275772095, 0.18523122370243073, -0.25993067026138306, 0.2765352725982666, -0.2920301854610443], [0.13516491651535034, 0.2244109809398651, 0.17353565990924835, -0.02662588469684124, -0.1869303435087204, -0.020514104515314102, -0.03280644118785858, -0.18887248635292053, 0.135750412940979, -0.08537283539772034, 0.05911397188901901, 0.297170490026474, -0.1727636158466339, -0.1080080047249794, 0.35419028997421265, -0.2396031767129898], [-0.018171707168221474, 0.04709022864699364, 0.22099687159061432, -0.022190209478139877, 0.10889187455177307, -0.05287543684244156, -0.06903073191642761, 0.23883776366710663, -0.04471597447991371, -0.052374474704265594, -0.2706526219844818, -0.04578346014022827, -0.24864907562732697, -0.09010579437017441, 0.1958574652671814, 0.23917603492736816], [-0.06954266875982285, -0.19186639785766602, -0.13796305656433105, 0.02235100232064724, -0.28504958748817444, -0.01979699917137623, -0.14814509451389313, -0.2481953352689743, -0.059090856462717056, -0.039519038051366806, 0.0977017804980278, 0.22995300590991974, -0.04475788399577141, 0.17241880297660828, 0.11715533584356308, -0.06964728981256485], [-0.10391878336668015, -0.23946966230869293, -0.17398276925086975, 0.06066809594631195, -0.10084984451532364, 0.07575228065252304, -0.19669795036315918, 0.10980607569217682, -0.13331981003284454, -0.0674915686249733, -0.19859454035758972, 0.15612103044986725, -0.0601608082652092, -0.007877834141254425, 0.07802357524633408, -0.14998368918895721], [-0.060890767723321915, 0.26268908381462097, 0.13751870393753052, -0.049154575914144516, 0.12925158441066742, -0.07466273754835129, 0.2005019187927246, 0.23726649582386017, -0.06690465658903122, -0.2122424840927124, 0.2653787434101105, -0.061325691640377045, 0.2800755798816681, 0.2928220331668854, -0.06670834869146347, -0.2699974477291107], [0.04808395355939865, 0.016937406733632088, 0.07041468471288681, 0.1449834257364273, 0.03824462369084358, 0.1266845017671585, -0.3110445737838745, 0.21631057560443878, 0.02114393562078476, -0.25253862142562866, 0.3162565529346466, -0.08614994585514069, 0.25588706135749817, -0.06372546404600143, -0.08616863191127777, 0.04338134452700615], [-0.019539467990398407, 0.2529282569885254, -0.07587657123804092, 0.26889023184776306, 0.24056223034858704, -0.07477978616952896, 0.10698471963405609, 0.19567400217056274, 0.30865907669067383, 0.10076960921287537, 0.056791070848703384, 0.17764224112033844, -0.03380213677883148, -0.024970605969429016, 0.11007314920425415, 0.36298948526382446], [-0.1647658795118332, -0.34643813967704773, 0.13485117256641388, 0.062096066772937775, -0.15908664464950562, -0.03548088297247887, 0.38177424669265747, -0.15591908991336823, -0.2415313571691513, -0.1338978111743927, 0.20012392103672028, 0.4174734055995941, -0.2083592414855957, 0.0056694443337619305, -0.0722799152135849, -0.0004986520507372916], [-0.0023448856081813574, -0.08242495357990265, 0.40971025824546814, -0.3010810911655426, -0.1699572652578354, -0.0015288800932466984, 0.21186010539531708, -0.3135162889957428, -0.16108810901641846, 0.2244226485490799, -0.1415887027978897, -0.08012663573026657, 0.09023331850767136, -0.2942914664745331, 0.39755165576934814, -0.08166729658842087], [-0.13884484767913818, 0.18122902512550354, -0.19317400455474854, 0.13194070756435394, 0.26478272676467896, -0.11400176584720612, 0.32784318923950195, 0.3394371569156647, 0.149980366230011, 0.2874457538127899, -0.09279889613389969, -0.05392131209373474, -0.09730562567710876, -0.07609565556049347, 0.027734212577342987, -0.22309036552906036], [-0.08258316665887833, 0.029440147802233696, 0.0002740870986599475, 0.06741548329591751, -0.1091136783361435, 0.0017884153639897704, -0.2200963795185089, 0.28244897723197937, -0.15842030942440033, 0.05580030009150505, 0.3285195827484131, -0.058700304478406906, 0.000295638688839972, -0.14563630521297455, 0.028211403638124466, -0.051199156790971756], [0.04757893830537796, -0.09261857718229294, -0.28156736493110657, -0.09067757427692413, 0.30841296911239624, -0.11908846348524094, -0.09632152318954468, -0.17533496022224426, 0.24934005737304688, -0.013714451342821121, 0.3330118954181671, -0.26132887601852417, -0.1472296267747879, -0.032345566898584366, -0.16599904000759125, 0.30995601415634155], [0.009326796978712082, 0.31001538038253784, 0.15114542841911316, -0.09173501282930374, 0.203574076294899, 0.062090057879686356, -0.1382884830236435, -0.17643123865127563, 0.30209100246429443, -0.057088159024715424, 0.18299253284931183, -0.019755234941840172, 0.04000130668282509, 0.29566672444343567, 0.1491975337266922, -0.11772768199443817]], [-0.0447658933699131, 0.002102437661960721, 0.0672541931271553, -0.006073758006095886, 0.005252073984593153, -0.001716688508167863, 0.06055913865566254, 0.018751896917819977, -0.002693407004699111, 0.021596455946564674, -0.045101553201675415, 0.0768057331442833, 0.015481515787541866, -0.007491897325962782, 0.05717102065682411, 0.021611055359244347], [[0.2506449222564697], [0.569065272808075], [-0.5965486764907837], [0.3328865170478821], [0.3956204652786255], [0.001402759924530983], [-0.47566166520118713], [0.43784859776496887], [0.14042040705680847], [0.315687358379364], [0.48558008670806885], [-0.28459373116493225], [0.17662067711353302], [0.360099196434021], [-0.39811986684799194], [0.501175045967102]], [-0.05480732396245003]]}